digraph Tree {
node [shape=box] ;
0 [label="X[3] <= 0.5\nentropy = 0.971\nsamples = 5\nvalue = [3, 2]"] ;
1 [label="X[2] <= 1.5\nentropy = 0.918\nsamples = 3\nvalue = [1, 2]"] ;
0 -> 1 [labeldistance=2.5, labelangle=45, headlabel="True"] ;
2 [label="entropy = 0.0\nsamples = 2\nvalue = [0, 2]"] ;
1 -> 2 ;
3 [label="entropy = 0.0\nsamples = 1\nvalue = [1, 0]"] ;
1 -> 3 ;
4 [label="entropy = 0.0\nsamples = 2\nvalue = [2, 0]"] ;
0 -> 4 [labeldistance=2.5, labelangle=-45, headlabel="False"] ;
}